digraph Tree {
node [shape=box] ;
0 [label="X[20] <= 0.5\ngini = 0.393\nsamples = 10691\nvalue = [2877, 7814]"] ;
1 [label="X[58] <= 0.5\ngini = 0.18\nsamples = 8515\nvalue = [852, 7663]"] ;
0 -> 1 [labeldistance=2.5, labelangle=45, headlabel="True"] ;
2 [label="X[19] <= 0.5\ngini = 0.128\nsamples = 8120\nvalue = [556, 7564]"] ;
1 -> 2 ;
3 [label="X[115] <= 0.5\ngini = 0.104\nsamples = 7992\nvalue = [439, 7553]"] ;
2 -> 3 ;
4 [label="X[81] <= 0.5\ngini = 0.084\nsamples = 7883\nvalue = [347, 7536]"] ;
3 -> 4 ;
5 [label="X[6] <= 1.5\ngini = 0.061\nsamples = 7660\nvalue = [243, 7417]"] ;
4 -> 5 ;
6 [label="X[57] <= 1.5\ngini = 0.05\nsamples = 7610\nvalue = [197, 7413]"] ;
5 -> 6 ;
7 [label="X[25] <= 0.5\ngini = 0.043\nsamples = 7563\nvalue = [165, 7398]"] ;
6 -> 7 ;
8 [label="X[137] <= 0.5\ngini = 0.04\nsamples = 7553\nvalue = [155, 7398]"] ;
7 -> 8 ;
9 [label="X[26] <= 0.5\ngini = 0.039\nsamples = 7548\nvalue = [150, 7398]"] ;
8 -> 9 ;
10 [label="X[33] <= 1.5\ngini = 0.036\nsamples = 7515\nvalue = [137, 7378]"] ;
9 -> 10 ;
11 [label="X[29] <= 1.5\ngini = 0.033\nsamples = 7481\nvalue = [125, 7356]"] ;
10 -> 11 ;
12 [label="X[164] <= 1.5\ngini = 0.03\nsamples = 7445\nvalue = [113, 7332]"] ;
11 -> 12 ;
13 [label="X[375] <= 0.5\ngini = 0.027\nsamples = 7412\nvalue = [103, 7309]"] ;
12 -> 13 ;
14 [label="X[6] <= 0.5\ngini = 0.026\nsamples = 7399\nvalue = [97, 7302]"] ;
13 -> 14 ;
15 [label="X[370] <= 5.5\ngini = 0.024\nsamples = 7362\nvalue = [88, 7274]"] ;
14 -> 15 ;
16 [label="X[57] <= 0.5\ngini = 0.023\nsamples = 7360\nvalue = [86, 7274]"] ;
15 -> 16 ;
17 [label="X[313] <= 2.5\ngini = 0.019\nsamples = 7237\nvalue = [71, 7166]"] ;
16 -> 17 ;
18 [label="X[345] <= 2.5\ngini = 0.019\nsamples = 7236\nvalue = [70, 7166]"] ;
17 -> 18 ;
19 [label="X[162] <= 0.5\ngini = 0.019\nsamples = 7235\nvalue = [69, 7166]"] ;
18 -> 19 ;
20 [label="X[49] <= 0.5\ngini = 0.017\nsamples = 7170\nvalue = [62, 7108]"] ;
19 -> 20 ;
21 [label="X[409] <= 0.5\ngini = 0.015\nsamples = 7065\nvalue = [53, 7012]"] ;
20 -> 21 ;
22 [label="X[39] <= 0.5\ngini = 0.015\nsamples = 7063\nvalue = [52, 7011]"] ;
21 -> 22 ;
23 [label="X[130] <= 2.5\ngini = 0.014\nsamples = 7043\nvalue = [49, 6994]"] ;
22 -> 23 ;
24 [label="X[183] <= 2.5\ngini = 0.014\nsamples = 7041\nvalue = [48, 6993]"] ;
23 -> 24 ;
25 [label="X[136] <= 0.5\ngini = 0.013\nsamples = 7037\nvalue = [47, 6990]"] ;
24 -> 25 ;
26 [label="X[385] <= 4.5\ngini = 0.013\nsamples = 7033\nvalue = [46, 6987]"] ;
25 -> 26 ;
27 [label="X[195] <= 2.5\ngini = 0.013\nsamples = 7029\nvalue = [45, 6984]"] ;
26 -> 27 ;
28 [label="X[80] <= 2.5\ngini = 0.012\nsamples = 7025\nvalue = [44, 6981]"] ;
27 -> 28 ;
29 [label="X[244] <= 2.5\ngini = 0.012\nsamples = 7020\nvalue = [43, 6977]"] ;
28 -> 29 ;
30 [label="X[499] <= 0.5\ngini = 0.012\nsamples = 7015\nvalue = [42, 6973]"] ;
29 -> 30 ;
31 [label="X[32] <= 1.5\ngini = 0.012\nsamples = 7009\nvalue = [41, 6968]"] ;
30 -> 31 ;
32 [label="X[344] <= 1.5\ngini = 0.011\nsamples = 7003\nvalue = [40, 6963]"] ;
31 -> 32 ;
33 [label="X[276] <= 0.5\ngini = 0.011\nsamples = 6979\nvalue = [38, 6941]"] ;
32 -> 33 ;
34 [label="X[335] <= 2.5\ngini = 0.01\nsamples = 6942\nvalue = [36, 6906]"] ;
33 -> 34 ;
35 [label="X[235] <= 0.5\ngini = 0.01\nsamples = 6931\nvalue = [35, 6896]"] ;
34 -> 35 ;
36 [label="X[246] <= 1.5\ngini = 0.01\nsamples = 6919\nvalue = [34, 6885]"] ;
35 -> 36 ;
37 [label="X[339] <= 1.5\ngini = 0.01\nsamples = 6905\nvalue = [33, 6872]"] ;
36 -> 37 ;
38 [label="X[14] <= 4.5\ngini = 0.009\nsamples = 6854\nvalue = [31, 6823]"] ;
37 -> 38 ;
39 [label="X[44] <= 0.5\ngini = 0.009\nsamples = 6838\nvalue = [30, 6808]"] ;
38 -> 39 ;
40 [label="X[196] <= 1.5\ngini = 0.013\nsamples = 4156\nvalue = [28, 4128]"] ;
39 -> 40 ;
41 [label="X[22] <= 0.5\ngini = 0.013\nsamples = 4147\nvalue = [27, 4120]"] ;
40 -> 41 ;
42 [label="X[129] <= 0.5\ngini = 0.012\nsamples = 4076\nvalue = [24, 4052]"] ;
41 -> 42 ;
43 [label="X[466] <= 3.5\ngini = 0.011\nsamples = 4066\nvalue = [23, 4043]"] ;
42 -> 43 ;
44 [label="X[21] <= 0.5\ngini = 0.011\nsamples = 4049\nvalue = [22, 4027]"] ;
43 -> 44 ;
45 [label="X[291] <= 2.5\ngini = 0.014\nsamples = 2932\nvalue = [21, 2911]"] ;
44 -> 45 ;
46 [label="X[203] <= 0.5\ngini = 0.014\nsamples = 2929\nvalue = [20, 2909]"] ;
45 -> 46 ;
47 [label="X[17] <= 0.5\ngini = 0.012\nsamples = 2807\nvalue = [17, 2790]"] ;
46 -> 47 ;
48 [label="X[97] <= 0.5\ngini = 0.015\nsamples = 2215\nvalue = [17, 2198]"] ;
47 -> 48 ;
49 [label="X[18] <= 0.5\ngini = 0.019\nsamples = 1727\nvalue = [17, 1710]"] ;
48 -> 49 ;
50 [label="X[178] <= 0.5\ngini = 0.023\nsamples = 1433\nvalue = [17, 1416]"] ;
49 -> 50 ;
51 [label="X[481] <= 0.5\ngini = 0.028\nsamples = 1216\nvalue = [17, 1199]"] ;
50 -> 51 ;
52 [label="X[241] <= 0.5\ngini = 0.032\nsamples = 1051\nvalue = [17, 1034]"] ;
51 -> 52 ;
53 [label="X[316] <= 0.5\ngini = 0.037\nsamples = 910\nvalue = [17, 893]"] ;
52 -> 53 ;
54 [label="X[200] <= 0.5\ngini = 0.04\nsamples = 828\nvalue = [17, 811]"] ;
53 -> 54 ;
55 [label="X[50] <= 0.5\ngini = 0.044\nsamples = 764\nvalue = [17, 747]"] ;
54 -> 55 ;
56 [label="X[279] <= 0.5\ngini = 0.047\nsamples = 712\nvalue = [17, 695]"] ;
55 -> 56 ;
57 [label="X[77] <= 0.5\ngini = 0.05\nsamples = 662\nvalue = [17, 645]"] ;
56 -> 57 ;
58 [label="X[283] <= 0.5\ngini = 0.054\nsamples = 616\nvalue = [17, 599]"] ;
57 -> 58 ;
59 [label="X[74] <= 0.5\ngini = 0.058\nsamples = 572\nvalue = [17, 555]"] ;
58 -> 59 ;
60 [label="X[126] <= 0.5\ngini = 0.062\nsamples = 534\nvalue = [17, 517]"] ;
59 -> 60 ;
61 [label="X[331] <= 0.5\ngini = 0.066\nsamples = 501\nvalue = [17, 484]"] ;
60 -> 61 ;
62 [label="X[110] <= 0.5\ngini = 0.07\nsamples = 470\nvalue = [17, 453]"] ;
61 -> 62 ;
63 [label="X[326] <= 0.5\ngini = 0.074\nsamples = 444\nvalue = [17, 427]"] ;
62 -> 63 ;
64 [label="X[185] <= 0.5\ngini = 0.077\nsamples = 425\nvalue = [17, 408]"] ;
63 -> 64 ;
65 [label="X[275] <= 0.5\ngini = 0.08\nsamples = 406\nvalue = [17, 389]"] ;
64 -> 65 ;
66 [label="X[172] <= 0.5\ngini = 0.083\nsamples = 390\nvalue = [17, 373]"] ;
65 -> 66 ;
67 [label="X[272] <= 0.5\ngini = 0.087\nsamples = 374\nvalue = [17, 357]"] ;
66 -> 67 ;
68 [label="X[88] <= 0.5\ngini = 0.09\nsamples = 361\nvalue = [17, 344]"] ;
67 -> 68 ;
69 [label="X[108] <= 0.5\ngini = 0.093\nsamples = 348\nvalue = [17, 331]"] ;
68 -> 69 ;
70 [label="X[262] <= 0.5\ngini = 0.096\nsamples = 336\nvalue = [17, 319]"] ;
69 -> 70 ;
71 [label="X[248] <= 0.5\ngini = 0.099\nsamples = 325\nvalue = [17, 308]"] ;
70 -> 71 ;
72 [label="X[373] <= 0.5\ngini = 0.102\nsamples = 314\nvalue = [17, 297]"] ;
71 -> 72 ;
73 [label="X[1] <= 0.5\ngini = 0.106\nsamples = 304\nvalue = [17, 287]"] ;
72 -> 73 ;
74 [label="X[474] <= 0.5\ngini = 0.109\nsamples = 295\nvalue = [17, 278]"] ;
73 -> 74 ;
75 [label="X[135] <= 0.5\ngini = 0.111\nsamples = 287\nvalue = [17, 270]"] ;
74 -> 75 ;
76 [label="X[13] <= 0.5\ngini = 0.114\nsamples = 279\nvalue = [17, 262]"] ;
75 -> 76 ;
77 [label="X[76] <= 0.5\ngini = 0.117\nsamples = 272\nvalue = [17, 255]"] ;
76 -> 77 ;
78 [label="X[191] <= 0.5\ngini = 0.12\nsamples = 265\nvalue = [17, 248]"] ;
77 -> 78 ;
79 [label="X[280] <= 0.5\ngini = 0.123\nsamples = 259\nvalue = [17, 242]"] ;
78 -> 79 ;
80 [label="X[91] <= 0.5\ngini = 0.125\nsamples = 253\nvalue = [17, 236]"] ;
79 -> 80 ;
81 [label="X[240] <= 0.5\ngini = 0.128\nsamples = 247\nvalue = [17, 230]"] ;
80 -> 81 ;
82 [label="X[251] <= 0.5\ngini = 0.131\nsamples = 242\nvalue = [17, 225]"] ;
81 -> 82 ;
83 [label="X[208] <= 0.5\ngini = 0.133\nsamples = 237\nvalue = [17, 220]"] ;
82 -> 83 ;
84 [label="X[5] <= 0.5\ngini = 0.136\nsamples = 232\nvalue = [17, 215]"] ;
83 -> 84 ;
85 [label="X[310] <= 0.5\ngini = 0.139\nsamples = 227\nvalue = [17, 210]"] ;
84 -> 85 ;
86 [label="X[140] <= 0.5\ngini = 0.141\nsamples = 222\nvalue = [17, 205]"] ;
85 -> 86 ;
87 [label="X[103] <= 0.5\ngini = 0.144\nsamples = 217\nvalue = [17, 200]"] ;
86 -> 87 ;
88 [label="X[291] <= 0.5\ngini = 0.148\nsamples = 212\nvalue = [17, 195]"] ;
87 -> 88 ;
89 [label="X[382] <= 0.5\ngini = 0.15\nsamples = 208\nvalue = [17, 191]"] ;
88 -> 89 ;
90 [label="X[100] <= 0.5\ngini = 0.153\nsamples = 204\nvalue = [17, 187]"] ;
89 -> 90 ;
91 [label="X[472] <= 0.5\ngini = 0.156\nsamples = 200\nvalue = [17, 183]"] ;
90 -> 91 ;
92 [label="X[83] <= 0.5\ngini = 0.158\nsamples = 196\nvalue = [17, 179]"] ;
91 -> 92 ;
93 [label="X[268] <= 0.5\ngini = 0.161\nsamples = 192\nvalue = [17, 175]"] ;
92 -> 93 ;
94 [label="X[489] <= 0.5\ngini = 0.164\nsamples = 189\nvalue = [17, 172]"] ;
93 -> 94 ;
95 [label="X[143] <= 0.5\ngini = 0.166\nsamples = 186\nvalue = [17, 169]"] ;
94 -> 95 ;
96 [label="X[361] <= 0.5\ngini = 0.169\nsamples = 183\nvalue = [17, 166]"] ;
95 -> 96 ;
97 [label="X[11] <= 0.5\ngini = 0.171\nsamples = 180\nvalue = [17, 163]"] ;
96 -> 97 ;
98 [label="X[43] <= 0.5\ngini = 0.174\nsamples = 177\nvalue = [17, 160]"] ;
97 -> 98 ;
99 [label="X[154] <= 0.5\ngini = 0.176\nsamples = 174\nvalue = [17, 157]"] ;
98 -> 99 ;
100 [label="X[264] <= 0.5\ngini = 0.178\nsamples = 172\nvalue = [17, 155]"] ;
99 -> 100 ;
101 [label="X[359] <= 0.5\ngini = 0.18\nsamples = 170\nvalue = [17, 153]"] ;
100 -> 101 ;
102 [label="X[211] <= 0.5\ngini = 0.182\nsamples = 168\nvalue = [17, 151]"] ;
101 -> 102 ;
103 [label="X[449] <= 0.5\ngini = 0.184\nsamples = 166\nvalue = [17, 149]"] ;
102 -> 103 ;
104 [label="X[112] <= 0.5\ngini = 0.186\nsamples = 164\nvalue = [17, 147]"] ;
103 -> 104 ;
105 [label="X[65] <= 0.5\ngini = 0.188\nsamples = 162\nvalue = [17, 145]"] ;
104 -> 105 ;
106 [label="X[352] <= 0.5\ngini = 0.19\nsamples = 160\nvalue = [17, 143]"] ;
105 -> 106 ;
107 [label="X[234] <= 0.5\ngini = 0.191\nsamples = 159\nvalue = [17, 142]"] ;
106 -> 107 ;
108 [label="X[285] <= 0.5\ngini = 0.192\nsamples = 158\nvalue = [17, 141]"] ;
107 -> 108 ;
109 [label="X[229] <= 0.5\ngini = 0.193\nsamples = 157\nvalue = [17, 140]"] ;
108 -> 109 ;
110 [label="X[120] <= 0.5\ngini = 0.194\nsamples = 156\nvalue = [17, 139]"] ;
109 -> 110 ;
111 [label="X[192] <= 0.5\ngini = 0.195\nsamples = 155\nvalue = [17, 138]"] ;
110 -> 111 ;
112 [label="X[223] <= 1.0\ngini = 0.196\nsamples = 154\nvalue = [17, 137]"] ;
111 -> 112 ;
113 [label="X[398] <= 0.5\ngini = 0.198\nsamples = 153\nvalue = [17, 136]"] ;
112 -> 113 ;
114 [label="X[16] <= 0.5\ngini = 0.199\nsamples = 152\nvalue = [17, 135]"] ;
113 -> 114 ;
115 [label="X[421] <= 0.5\ngini = 0.2\nsamples = 151\nvalue = [17, 134]"] ;
114 -> 115 ;
116 [label="X[423] <= 0.5\ngini = 0.201\nsamples = 150\nvalue = [17, 133]"] ;
115 -> 116 ;
117 [label="X[85] <= 0.5\ngini = 0.202\nsamples = 149\nvalue = [17, 132]"] ;
116 -> 117 ;
118 [label="X[107] <= 0.5\ngini = 0.203\nsamples = 148\nvalue = [17, 131]"] ;
117 -> 118 ;
119 [label="X[130] <= 0.5\ngini = 0.205\nsamples = 147\nvalue = [17, 130]"] ;
118 -> 119 ;
120 [label="X[319] <= 0.5\ngini = 0.206\nsamples = 146\nvalue = [17, 129]"] ;
119 -> 120 ;
121 [label="X[470] <= 0.5\ngini = 0.207\nsamples = 145\nvalue = [17, 128]"] ;
120 -> 121 ;
122 [label="X[167] <= 0.5\ngini = 0.208\nsamples = 144\nvalue = [17, 127]"] ;
121 -> 122 ;
123 [label="X[287] <= 0.5\ngini = 0.209\nsamples = 143\nvalue = [17, 126]"] ;
122 -> 123 ;
124 [label="X[198] <= 0.5\ngini = 0.211\nsamples = 142\nvalue = [17, 125]"] ;
123 -> 124 ;
125 [label="X[305] <= 0.5\ngini = 0.212\nsamples = 141\nvalue = [17, 124]"] ;
124 -> 125 ;
126 [label="X[441] <= 0.5\ngini = 0.213\nsamples = 140\nvalue = [17, 123]"] ;
125 -> 126 ;
127 [label="X[420] <= 0.5\ngini = 0.215\nsamples = 139\nvalue = [17, 122]"] ;
126 -> 127 ;
128 [label="gini = 0.216\nsamples = 138\nvalue = [17, 121]"] ;
127 -> 128 ;
129 [label="gini = 0.0\nsamples = 1\nvalue = [0, 1]"] ;
127 -> 129 ;
130 [label="gini = 0.0\nsamples = 1\nvalue = [0, 1]"] ;
126 -> 130 ;
131 [label="gini = 0.0\nsamples = 1\nvalue = [0, 1]"] ;
125 -> 131 ;
132 [label="gini = 0.0\nsamples = 1\nvalue = [0, 1]"] ;
124 -> 132 ;
133 [label="gini = 0.0\nsamples = 1\nvalue = [0, 1]"] ;
123 -> 133 ;
134 [label="gini = 0.0\nsamples = 1\nvalue = [0, 1]"] ;
122 -> 134 ;
135 [label="gini = 0.0\nsamples = 1\nvalue = [0, 1]"] ;
121 -> 135 ;
136 [label="gini = 0.0\nsamples = 1\nvalue = [0, 1]"] ;
120 -> 136 ;
137 [label="gini = 0.0\nsamples = 1\nvalue = [0, 1]"] ;
119 -> 137 ;
138 [label="gini = 0.0\nsamples = 1\nvalue = [0, 1]"] ;
118 -> 138 ;
139 [label="gini = 0.0\nsamples = 1\nvalue = [0, 1]"] ;
117 -> 139 ;
140 [label="gini = 0.0\nsamples = 1\nvalue = [0, 1]"] ;
116 -> 140 ;
141 [label="gini = 0.0\nsamples = 1\nvalue = [0, 1]"] ;
115 -> 141 ;
142 [label="gini = 0.0\nsamples = 1\nvalue = [0, 1]"] ;
114 -> 142 ;
143 [label="gini = 0.0\nsamples = 1\nvalue = [0, 1]"] ;
113 -> 143 ;
144 [label="gini = 0.0\nsamples = 1\nvalue = [0, 1]"] ;
112 -> 144 ;
145 [label="gini = 0.0\nsamples = 1\nvalue = [0, 1]"] ;
111 -> 145 ;
146 [label="gini = 0.0\nsamples = 1\nvalue = [0, 1]"] ;
110 -> 146 ;
147 [label="gini = 0.0\nsamples = 1\nvalue = [0, 1]"] ;
109 -> 147 ;
148 [label="gini = 0.0\nsamples = 1\nvalue = [0, 1]"] ;
108 -> 148 ;
149 [label="gini = 0.0\nsamples = 1\nvalue = [0, 1]"] ;
107 -> 149 ;
150 [label="gini = 0.0\nsamples = 1\nvalue = [0, 1]"] ;
106 -> 150 ;
151 [label="gini = 0.0\nsamples = 2\nvalue = [0, 2]"] ;
105 -> 151 ;
152 [label="gini = 0.0\nsamples = 2\nvalue = [0, 2]"] ;
104 -> 152 ;
153 [label="gini = 0.0\nsamples = 2\nvalue = [0, 2]"] ;
103 -> 153 ;
154 [label="gini = 0.0\nsamples = 2\nvalue = [0, 2]"] ;
102 -> 154 ;
155 [label="gini = 0.0\nsamples = 2\nvalue = [0, 2]"] ;
101 -> 155 ;
156 [label="gini = 0.0\nsamples = 2\nvalue = [0, 2]"] ;
100 -> 156 ;
157 [label="gini = 0.0\nsamples = 2\nvalue = [0, 2]"] ;
99 -> 157 ;
158 [label="gini = 0.0\nsamples = 3\nvalue = [0, 3]"] ;
98 -> 158 ;
159 [label="gini = 0.0\nsamples = 3\nvalue = [0, 3]"] ;
97 -> 159 ;
160 [label="gini = 0.0\nsamples = 3\nvalue = [0, 3]"] ;
96 -> 160 ;
161 [label="gini = 0.0\nsamples = 3\nvalue = [0, 3]"] ;
95 -> 161 ;
162 [label="gini = 0.0\nsamples = 3\nvalue = [0, 3]"] ;
94 -> 162 ;
163 [label="gini = 0.0\nsamples = 3\nvalue = [0, 3]"] ;
93 -> 163 ;
164 [label="gini = 0.0\nsamples = 4\nvalue = [0, 4]"] ;
92 -> 164 ;
165 [label="gini = 0.0\nsamples = 4\nvalue = [0, 4]"] ;
91 -> 165 ;
166 [label="gini = 0.0\nsamples = 4\nvalue = [0, 4]"] ;
90 -> 166 ;
167 [label="gini = 0.0\nsamples = 4\nvalue = [0, 4]"] ;
89 -> 167 ;
168 [label="gini = 0.0\nsamples = 4\nvalue = [0, 4]"] ;
88 -> 168 ;
169 [label="gini = 0.0\nsamples = 5\nvalue = [0, 5]"] ;
87 -> 169 ;
170 [label="gini = 0.0\nsamples = 5\nvalue = [0, 5]"] ;
86 -> 170 ;
171 [label="gini = 0.0\nsamples = 5\nvalue = [0, 5]"] ;
85 -> 171 ;
172 [label="gini = 0.0\nsamples = 5\nvalue = [0, 5]"] ;
84 -> 172 ;
173 [label="gini = 0.0\nsamples = 5\nvalue = [0, 5]"] ;
83 -> 173 ;
174 [label="gini = 0.0\nsamples = 5\nvalue = [0, 5]"] ;
82 -> 174 ;
175 [label="gini = 0.0\nsamples = 5\nvalue = [0, 5]"] ;
81 -> 175 ;
176 [label="gini = 0.0\nsamples = 6\nvalue = [0, 6]"] ;
80 -> 176 ;
177 [label="gini = 0.0\nsamples = 6\nvalue = [0, 6]"] ;
79 -> 177 ;
178 [label="gini = 0.0\nsamples = 6\nvalue = [0, 6]"] ;
78 -> 178 ;
179 [label="gini = 0.0\nsamples = 7\nvalue = [0, 7]"] ;
77 -> 179 ;
180 [label="gini = 0.0\nsamples = 7\nvalue = [0, 7]"] ;
76 -> 180 ;
181 [label="gini = 0.0\nsamples = 8\nvalue = [0, 8]"] ;
75 -> 181 ;
182 [label="gini = 0.0\nsamples = 8\nvalue = [0, 8]"] ;
74 -> 182 ;
183 [label="gini = 0.0\nsamples = 9\nvalue = [0, 9]"] ;
73 -> 183 ;
184 [label="gini = 0.0\nsamples = 10\nvalue = [0, 10]"] ;
72 -> 184 ;
185 [label="gini = 0.0\nsamples = 11\nvalue = [0, 11]"] ;
71 -> 185 ;
186 [label="gini = 0.0\nsamples = 11\nvalue = [0, 11]"] ;
70 -> 186 ;
187 [label="gini = 0.0\nsamples = 12\nvalue = [0, 12]"] ;
69 -> 187 ;
188 [label="gini = 0.0\nsamples = 13\nvalue = [0, 13]"] ;
68 -> 188 ;
189 [label="gini = 0.0\nsamples = 13\nvalue = [0, 13]"] ;
67 -> 189 ;
190 [label="gini = 0.0\nsamples = 16\nvalue = [0, 16]"] ;
66 -> 190 ;
191 [label="gini = 0.0\nsamples = 16\nvalue = [0, 16]"] ;
65 -> 191 ;
192 [label="gini = 0.0\nsamples = 19\nvalue = [0, 19]"] ;
64 -> 192 ;
193 [label="gini = 0.0\nsamples = 19\nvalue = [0, 19]"] ;
63 -> 193 ;
194 [label="gini = 0.0\nsamples = 26\nvalue = [0, 26]"] ;
62 -> 194 ;
195 [label="gini = 0.0\nsamples = 31\nvalue = [0, 31]"] ;
61 -> 195 ;
196 [label="gini = 0.0\nsamples = 33\nvalue = [0, 33]"] ;
60 -> 196 ;
197 [label="gini = 0.0\nsamples = 38\nvalue = [0, 38]"] ;
59 -> 197 ;
198 [label="gini = 0.0\nsamples = 44\nvalue = [0, 44]"] ;
58 -> 198 ;
199 [label="gini = 0.0\nsamples = 46\nvalue = [0, 46]"] ;
57 -> 199 ;
200 [label="gini = 0.0\nsamples = 50\nvalue = [0, 50]"] ;
56 -> 200 ;
201 [label="gini = 0.0\nsamples = 52\nvalue = [0, 52]"] ;
55 -> 201 ;
202 [label="gini = 0.0\nsamples = 64\nvalue = [0, 64]"] ;
54 -> 202 ;
203 [label="gini = 0.0\nsamples = 82\nvalue = [0, 82]"] ;
53 -> 203 ;
204 [label="gini = 0.0\nsamples = 141\nvalue = [0, 141]"] ;
52 -> 204 ;
205 [label="gini = 0.0\nsamples = 165\nvalue = [0, 165]"] ;
51 -> 205 ;
206 [label="gini = 0.0\nsamples = 217\nvalue = [0, 217]"] ;
50 -> 206 ;
207 [label="gini = 0.0\nsamples = 294\nvalue = [0, 294]"] ;
49 -> 207 ;
208 [label="gini = 0.0\nsamples = 488\nvalue = [0, 488]"] ;
48 -> 208 ;
209 [label="gini = 0.0\nsamples = 592\nvalue = [0, 592]"] ;
47 -> 209 ;
210 [label="X[176] <= 0.5\ngini = 0.048\nsamples = 122\nvalue = [3, 119]"] ;
46 -> 210 ;
211 [label="X[262] <= 0.5\ngini = 0.033\nsamples = 120\nvalue = [2, 118]"] ;
210 -> 211 ;
212 [label="X[1] <= 0.5\ngini = 0.017\nsamples = 116\nvalue = [1, 115]"] ;
211 -> 212 ;
213 [label="gini = 0.0\nsamples = 94\nvalue = [0, 94]"] ;
212 -> 213 ;
214 [label="X[18] <= 0.5\ngini = 0.087\nsamples = 22\nvalue = [1, 21]"] ;
212 -> 214 ;
215 [label="gini = 0.0\nsamples = 1\nvalue = [1, 0]"] ;
214 -> 215 ;
216 [label="gini = 0.0\nsamples = 21\nvalue = [0, 21]"] ;
214 -> 216 ;
217 [label="X[18] <= 0.5\ngini = 0.375\nsamples = 4\nvalue = [1, 3]"] ;
211 -> 217 ;
218 [label="gini = 0.0\nsamples = 1\nvalue = [1, 0]"] ;
217 -> 218 ;
219 [label="gini = 0.0\nsamples = 3\nvalue = [0, 3]"] ;
217 -> 219 ;
220 [label="X[257] <= 0.5\ngini = 0.5\nsamples = 2\nvalue = [1, 1]"] ;
210 -> 220 ;
221 [label="gini = 0.0\nsamples = 1\nvalue = [1, 0]"] ;
220 -> 221 ;
222 [label="gini = 0.0\nsamples = 1\nvalue = [0, 1]"] ;
220 -> 222 ;
223 [label="X[16] <= 0.5\ngini = 0.444\nsamples = 3\nvalue = [1, 2]"] ;
45 -> 223 ;
224 [label="gini = 0.0\nsamples = 2\nvalue = [0, 2]"] ;
223 -> 224 ;
225 [label="gini = 0.0\nsamples = 1\nvalue = [1, 0]"] ;
223 -> 225 ;
226 [label="X[403] <= 0.5\ngini = 0.002\nsamples = 1117\nvalue = [1, 1116]"] ;
44 -> 226 ;
227 [label="gini = 0.0\nsamples = 1111\nvalue = [0, 1111]"] ;
226 -> 227 ;
228 [label="X[97] <= 1.0\ngini = 0.278\nsamples = 6\nvalue = [1, 5]"] ;
226 -> 228 ;
229 [label="gini = 0.0\nsamples = 1\nvalue = [1, 0]"] ;
228 -> 229 ;
230 [label="gini = 0.0\nsamples = 5\nvalue = [0, 5]"] ;
228 -> 230 ;
231 [label="X[23] <= 0.5\ngini = 0.111\nsamples = 17\nvalue = [1, 16]"] ;
43 -> 231 ;
232 [label="gini = 0.0\nsamples = 16\nvalue = [0, 16]"] ;
231 -> 232 ;
233 [label="gini = 0.0\nsamples = 1\nvalue = [1, 0]"] ;
231 -> 233 ;
234 [label="X[172] <= 0.5\ngini = 0.18\nsamples = 10\nvalue = [1, 9]"] ;
42 -> 234 ;
235 [label="gini = 0.0\nsamples = 9\nvalue = [0, 9]"] ;
234 -> 235 ;
236 [label="gini = 0.0\nsamples = 1\nvalue = [1, 0]"] ;
234 -> 236 ;
237 [label="X[36] <= 0.5\ngini = 0.081\nsamples = 71\nvalue = [3, 68]"] ;
41 -> 237 ;
238 [label="X[354] <= 0.5\ngini = 0.056\nsamples = 70\nvalue = [2, 68]"] ;
237 -> 238 ;
239 [label="X[474] <= 0.5\ngini = 0.029\nsamples = 69\nvalue = [1, 68]"] ;
238 -> 239 ;
240 [label="gini = 0.0\nsamples = 68\nvalue = [0, 68]"] ;
239 -> 240 ;
241 [label="gini = 0.0\nsamples = 1\nvalue = [1, 0]"] ;
239 -> 241 ;
242 [label="gini = 0.0\nsamples = 1\nvalue = [1, 0]"] ;
238 -> 242 ;
243 [label="gini = 0.0\nsamples = 1\nvalue = [1, 0]"] ;
237 -> 243 ;
244 [label="X[203] <= 0.5\ngini = 0.198\nsamples = 9\nvalue = [1, 8]"] ;
40 -> 244 ;
245 [label="gini = 0.0\nsamples = 8\nvalue = [0, 8]"] ;
244 -> 245 ;
246 [label="gini = 0.0\nsamples = 1\nvalue = [1, 0]"] ;
244 -> 246 ;
247 [label="X[164] <= 0.5\ngini = 0.001\nsamples = 2682\nvalue = [2, 2680]"] ;
39 -> 247 ;
248 [label="X[29] <= 0.5\ngini = 0.001\nsamples = 2620\nvalue = [1, 2619]"] ;
247 -> 248 ;
249 [label="gini = 0.0\nsamples = 2562\nvalue = [0, 2562]"] ;
248 -> 249 ;
250 [label="X[192] <= 0.5\ngini = 0.034\nsamples = 58\nvalue = [1, 57]"] ;
248 -> 250 ;
251 [label="gini = 0.0\nsamples = 56\nvalue = [0, 56]"] ;
250 -> 251 ;
252 [label="X[192] <= 1.5\ngini = 0.5\nsamples = 2\nvalue = [1, 1]"] ;
250 -> 252 ;
253 [label="gini = 0.0\nsamples = 1\nvalue = [1, 0]"] ;
252 -> 253 ;
254 [label="gini = 0.0\nsamples = 1\nvalue = [0, 1]"] ;
252 -> 254 ;
255 [label="X[5] <= 2.5\ngini = 0.032\nsamples = 62\nvalue = [1, 61]"] ;
247 -> 255 ;
256 [label="gini = 0.0\nsamples = 60\nvalue = [0, 60]"] ;
255 -> 256 ;
257 [label="gini = 0.5\nsamples = 2\nvalue = [1, 1]"] ;
255 -> 257 ;
258 [label="X[11] <= 3.0\ngini = 0.117\nsamples = 16\nvalue = [1, 15]"] ;
38 -> 258 ;
259 [label="gini = 0.0\nsamples = 15\nvalue = [0, 15]"] ;
258 -> 259 ;
260 [label="gini = 0.0\nsamples = 1\nvalue = [1, 0]"] ;
258 -> 260 ;
261 [label="X[8] <= 3.5\ngini = 0.075\nsamples = 51\nvalue = [2, 49]"] ;
37 -> 261 ;
262 [label="X[291] <= 0.5\ngini = 0.039\nsamples = 50\nvalue = [1, 49]"] ;
261 -> 262 ;
263 [label="gini = 0.0\nsamples = 49\nvalue = [0, 49]"] ;
262 -> 263 ;
264 [label="gini = 0.0\nsamples = 1\nvalue = [1, 0]"] ;
262 -> 264 ;
265 [label="gini = 0.0\nsamples = 1\nvalue = [1, 0]"] ;
261 -> 265 ;
266 [label="X[203] <= 0.5\ngini = 0.133\nsamples = 14\nvalue = [1, 13]"] ;
36 -> 266 ;
267 [label="gini = 0.0\nsamples = 13\nvalue = [0, 13]"] ;
266 -> 267 ;
268 [label="gini = 0.0\nsamples = 1\nvalue = [1, 0]"] ;
266 -> 268 ;
269 [label="X[373] <= 0.5\ngini = 0.153\nsamples = 12\nvalue = [1, 11]"] ;
35 -> 269 ;
270 [label="gini = 0.0\nsamples = 11\nvalue = [0, 11]"] ;
269 -> 270 ;
271 [label="gini = 0.0\nsamples = 1\nvalue = [1, 0]"] ;
269 -> 271 ;
272 [label="X[373] <= 2.0\ngini = 0.165\nsamples = 11\nvalue = [1, 10]"] ;
34 -> 272 ;
273 [label="gini = 0.0\nsamples = 10\nvalue = [0, 10]"] ;
272 -> 273 ;
274 [label="gini = 0.0\nsamples = 1\nvalue = [1, 0]"] ;
272 -> 274 ;
275 [label="X[203] <= 0.5\ngini = 0.102\nsamples = 37\nvalue = [2, 35]"] ;
33 -> 275 ;
276 [label="gini = 0.0\nsamples = 35\nvalue = [0, 35]"] ;
275 -> 276 ;
277 [label="gini = 0.0\nsamples = 2\nvalue = [2, 0]"] ;
275 -> 277 ;
278 [label="X[217] <= 0.5\ngini = 0.153\nsamples = 24\nvalue = [2, 22]"] ;
32 -> 278 ;
279 [label="gini = 0.0\nsamples = 22\nvalue = [0, 22]"] ;
278 -> 279 ;
280 [label="gini = 0.0\nsamples = 2\nvalue = [2, 0]"] ;
278 -> 280 ;
281 [label="X[313] <= 0.5\ngini = 0.278\nsamples = 6\nvalue = [1, 5]"] ;
31 -> 281 ;
282 [label="gini = 0.0\nsamples = 5\nvalue = [0, 5]"] ;
281 -> 282 ;
283 [label="gini = 0.0\nsamples = 1\nvalue = [1, 0]"] ;
281 -> 283 ;
284 [label="X[499] <= 1.5\ngini = 0.278\nsamples = 6\nvalue = [1, 5]"] ;
30 -> 284 ;
285 [label="gini = 0.0\nsamples = 1\nvalue = [1, 0]"] ;
284 -> 285 ;
286 [label="gini = 0.0\nsamples = 5\nvalue = [0, 5]"] ;
284 -> 286 ;
287 [label="X[429] <= 0.5\ngini = 0.32\nsamples = 5\nvalue = [1, 4]"] ;
29 -> 287 ;
288 [label="gini = 0.0\nsamples = 4\nvalue = [0, 4]"] ;
287 -> 288 ;
289 [label="gini = 0.0\nsamples = 1\nvalue = [1, 0]"] ;
287 -> 289 ;
290 [label="X[434] <= 0.5\ngini = 0.32\nsamples = 5\nvalue = [1, 4]"] ;
28 -> 290 ;
291 [label="gini = 0.0\nsamples = 4\nvalue = [0, 4]"] ;
290 -> 291 ;
292 [label="gini = 0.0\nsamples = 1\nvalue = [1, 0]"] ;
290 -> 292 ;
293 [label="X[403] <= 0.5\ngini = 0.375\nsamples = 4\nvalue = [1, 3]"] ;
27 -> 293 ;
294 [label="gini = 0.0\nsamples = 3\nvalue = [0, 3]"] ;
293 -> 294 ;
295 [label="gini = 0.0\nsamples = 1\nvalue = [1, 0]"] ;
293 -> 295 ;
296 [label="X[374] <= 0.5\ngini = 0.375\nsamples = 4\nvalue = [1, 3]"] ;
26 -> 296 ;
297 [label="gini = 0.0\nsamples = 3\nvalue = [0, 3]"] ;
296 -> 297 ;
298 [label="gini = 0.0\nsamples = 1\nvalue = [1, 0]"] ;
296 -> 298 ;
299 [label="X[77] <= 0.5\ngini = 0.375\nsamples = 4\nvalue = [1, 3]"] ;
25 -> 299 ;
300 [label="gini = 0.0\nsamples = 1\nvalue = [1, 0]"] ;
299 -> 300 ;
301 [label="gini = 0.0\nsamples = 3\nvalue = [0, 3]"] ;
299 -> 301 ;
302 [label="X[101] <= 1.0\ngini = 0.375\nsamples = 4\nvalue = [1, 3]"] ;
24 -> 302 ;
303 [label="gini = 0.0\nsamples = 1\nvalue = [1, 0]"] ;
302 -> 303 ;
304 [label="gini = 0.0\nsamples = 3\nvalue = [0, 3]"] ;
302 -> 304 ;
305 [label="X[11] <= 5.5\ngini = 0.5\nsamples = 2\nvalue = [1, 1]"] ;
23 -> 305 ;
306 [label="gini = 0.0\nsamples = 1\nvalue = [1, 0]"] ;
305 -> 306 ;
307 [label="gini = 0.0\nsamples = 1\nvalue = [0, 1]"] ;
305 -> 307 ;
308 [label="X[480] <= 1.5\ngini = 0.255\nsamples = 20\nvalue = [3, 17]"] ;
22 -> 308 ;
309 [label="X[478] <= 0.5\ngini = 0.105\nsamples = 18\nvalue = [1, 17]"] ;
308 -> 309 ;
310 [label="gini = 0.0\nsamples = 17\nvalue = [0, 17]"] ;
309 -> 310 ;
311 [label="gini = 0.0\nsamples = 1\nvalue = [1, 0]"] ;
309 -> 311 ;
312 [label="gini = 0.0\nsamples = 2\nvalue = [2, 0]"] ;
308 -> 312 ;
313 [label="gini = 0.5\nsamples = 2\nvalue = [1, 1]"] ;
21 -> 313 ;
314 [label="X[30] <= 0.5\ngini = 0.157\nsamples = 105\nvalue = [9, 96]"] ;
20 -> 314 ;
315 [label="X[498] <= 0.5\ngini = 0.111\nsamples = 102\nvalue = [6, 96]"] ;
314 -> 315 ;
316 [label="X[31] <= 0.5\ngini = 0.077\nsamples = 100\nvalue = [4, 96]"] ;
315 -> 316 ;
317 [label="X[183] <= 1.5\ngini = 0.021\nsamples = 94\nvalue = [1, 93]"] ;
316 -> 317 ;
318 [label="gini = 0.0\nsamples = 93\nvalue = [0, 93]"] ;
317 -> 318 ;
319 [label="gini = 0.0\nsamples = 1\nvalue = [1, 0]"] ;
317 -> 319 ;
320 [label="X[97] <= 0.5\ngini = 0.5\nsamples = 6\nvalue = [3, 3]"] ;
316 -> 320 ;
321 [label="gini = 0.0\nsamples = 3\nvalue = [3, 0]"] ;
320 -> 321 ;
322 [label="gini = 0.0\nsamples = 3\nvalue = [0, 3]"] ;
320 -> 322 ;
323 [label="gini = 0.0\nsamples = 2\nvalue = [2, 0]"] ;
315 -> 323 ;
324 [label="gini = 0.0\nsamples = 3\nvalue = [3, 0]"] ;
314 -> 324 ;
325 [label="X[91] <= 0.5\ngini = 0.192\nsamples = 65\nvalue = [7, 58]"] ;
19 -> 325 ;
326 [label="X[370] <= 1.5\ngini = 0.148\nsamples = 62\nvalue = [5, 57]"] ;
325 -> 326 ;
327 [label="X[10] <= 0.5\ngini = 0.097\nsamples = 59\nvalue = [3, 56]"] ;
326 -> 327 ;
328 [label="X[18] <= 2.5\ngini = 0.035\nsamples = 56\nvalue = [1, 55]"] ;
327 -> 328 ;
329 [label="gini = 0.0\nsamples = 51\nvalue = [0, 51]"] ;
328 -> 329 ;
330 [label="X[106] <= 1.0\ngini = 0.32\nsamples = 5\nvalue = [1, 4]"] ;
328 -> 330 ;
331 [label="X[202] <= 1.0\ngini = 0.5\nsamples = 2\nvalue = [1, 1]"] ;
330 -> 331 ;
332 [label="gini = 0.0\nsamples = 1\nvalue = [1, 0]"] ;
331 -> 332 ;
333 [label="gini = 0.0\nsamples = 1\nvalue = [0, 1]"] ;
331 -> 333 ;
334 [label="gini = 0.0\nsamples = 3\nvalue = [0, 3]"] ;
330 -> 334 ;
335 [label="X[5] <= 1.5\ngini = 0.444\nsamples = 3\nvalue = [2, 1]"] ;
327 -> 335 ;
336 [label="gini = 0.0\nsamples = 2\nvalue = [2, 0]"] ;
335 -> 336 ;
337 [label="gini = 0.0\nsamples = 1\nvalue = [0, 1]"] ;
335 -> 337 ;
338 [label="X[21] <= 1.5\ngini = 0.444\nsamples = 3\nvalue = [2, 1]"] ;
326 -> 338 ;
339 [label="gini = 0.0\nsamples = 2\nvalue = [2, 0]"] ;
338 -> 339 ;
340 [label="gini = 0.0\nsamples = 1\nvalue = [0, 1]"] ;
338 -> 340 ;
341 [label="X[110] <= 0.5\ngini = 0.444\nsamples = 3\nvalue = [2, 1]"] ;
325 -> 341 ;
342 [label="gini = 0.0\nsamples = 1\nvalue = [0, 1]"] ;
341 -> 342 ;
343 [label="gini = 0.0\nsamples = 2\nvalue = [2, 0]"] ;
341 -> 343 ;
344 [label="gini = 0.0\nsamples = 1\nvalue = [1, 0]"] ;
18 -> 344 ;
345 [label="gini = 0.0\nsamples = 1\nvalue = [1, 0]"] ;
17 -> 345 ;
346 [label="X[358] <= 0.5\ngini = 0.214\nsamples = 123\nvalue = [15, 108]"] ;
16 -> 346 ;
347 [label="X[39] <= 0.5\ngini = 0.18\nsamples = 120\nvalue = [12, 108]"] ;
346 -> 347 ;
348 [label="X[440] <= 0.5\ngini = 0.155\nsamples = 118\nvalue = [10, 108]"] ;
347 -> 348 ;
349 [label="X[166] <= 1.0\ngini = 0.142\nsamples = 117\nvalue = [9, 108]"] ;
348 -> 349 ;
350 [label="X[48] <= 1.5\ngini = 0.128\nsamples = 116\nvalue = [8, 108]"] ;
349 -> 350 ;
351 [label="X[244] <= 2.5\ngini = 0.114\nsamples = 115\nvalue = [7, 108]"] ;
350 -> 351 ;
352 [label="X[1] <= 0.5\ngini = 0.1\nsamples = 114\nvalue = [6, 108]"] ;
351 -> 352 ;
353 [label="X[31] <= 0.5\ngini = 0.043\nsamples = 92\nvalue = [2, 90]"] ;
352 -> 353 ;
354 [label="gini = 0.0\nsamples = 78\nvalue = [0, 78]"] ;
353 -> 354 ;
355 [label="X[44] <= 0.5\ngini = 0.245\nsamples = 14\nvalue = [2, 12]"] ;
353 -> 355 ;
356 [label="gini = 0.0\nsamples = 2\nvalue = [2, 0]"] ;
355 -> 356 ;
357 [label="gini = 0.0\nsamples = 12\nvalue = [0, 12]"] ;
355 -> 357 ;
358 [label="X[227] <= 0.5\ngini = 0.298\nsamples = 22\nvalue = [4, 18]"] ;
352 -> 358 ;
359 [label="X[221] <= 0.5\ngini = 0.18\nsamples = 20\nvalue = [2, 18]"] ;
358 -> 359 ;
360 [label="X[37] <= 0.5\ngini = 0.1\nsamples = 19\nvalue = [1, 18]"] ;
359 -> 360 ;
361 [label="gini = 0.0\nsamples = 17\nvalue = [0, 17]"] ;
360 -> 361 ;
362 [label="X[18] <= 1.0\ngini = 0.5\nsamples = 2\nvalue = [1, 1]"] ;
360 -> 362 ;
363 [label="gini = 0.0\nsamples = 1\nvalue = [1, 0]"] ;
362 -> 363 ;
364 [label="gini = 0.0\nsamples = 1\nvalue = [0, 1]"] ;
362 -> 364 ;
365 [label="gini = 0.0\nsamples = 1\nvalue = [1, 0]"] ;
359 -> 365 ;
366 [label="gini = 0.0\nsamples = 2\nvalue = [2, 0]"] ;
358 -> 366 ;
367 [label="gini = 0.0\nsamples = 1\nvalue = [1, 0]"] ;
351 -> 367 ;
368 [label="gini = 0.0\nsamples = 1\nvalue = [1, 0]"] ;
350 -> 368 ;
369 [label="gini = 0.0\nsamples = 1\nvalue = [1, 0]"] ;
349 -> 369 ;
370 [label="gini = 0.0\nsamples = 1\nvalue = [1, 0]"] ;
348 -> 370 ;
371 [label="gini = 0.0\nsamples = 2\nvalue = [2, 0]"] ;
347 -> 371 ;
372 [label="gini = 0.0\nsamples = 3\nvalue = [3, 0]"] ;
346 -> 372 ;
373 [label="gini = 0.0\nsamples = 2\nvalue = [2, 0]"] ;
15 -> 373 ;
374 [label="X[5] <= 0.5\ngini = 0.368\nsamples = 37\nvalue = [9, 28]"] ;
14 -> 374 ;
375 [label="X[122] <= 0.5\ngini = 0.083\nsamples = 23\nvalue = [1, 22]"] ;
374 -> 375 ;
376 [label="gini = 0.0\nsamples = 22\nvalue = [0, 22]"] ;
375 -> 376 ;
377 [label="gini = 0.0\nsamples = 1\nvalue = [1, 0]"] ;
375 -> 377 ;
378 [label="X[222] <= 0.5\ngini = 0.49\nsamples = 14\nvalue = [8, 6]"] ;
374 -> 378 ;
379 [label="X[329] <= 0.5\ngini = 0.32\nsamples = 10\nvalue = [8, 2]"] ;
378 -> 379 ;
380 [label="gini = 0.0\nsamples = 8\nvalue = [8, 0]"] ;
379 -> 380 ;
381 [label="gini = 0.0\nsamples = 2\nvalue = [0, 2]"] ;
379 -> 381 ;
382 [label="gini = 0.0\nsamples = 4\nvalue = [0, 4]"] ;
378 -> 382 ;
383 [label="X[21] <= 1.5\ngini = 0.497\nsamples = 13\nvalue = [6, 7]"] ;
13 -> 383 ;
384 [label="X[337] <= 1.5\ngini = 0.375\nsamples = 8\nvalue = [6, 2]"] ;
383 -> 384 ;
385 [label="X[170] <= 0.5\ngini = 0.245\nsamples = 7\nvalue = [6, 1]"] ;
384 -> 385 ;
386 [label="gini = 0.0\nsamples = 6\nvalue = [6, 0]"] ;
385 -> 386 ;
387 [label="gini = 0.0\nsamples = 1\nvalue = [0, 1]"] ;
385 -> 387 ;
388 [label="gini = 0.0\nsamples = 1\nvalue = [0, 1]"] ;
384 -> 388 ;
389 [label="gini = 0.0\nsamples = 5\nvalue = [0, 5]"] ;
383 -> 389 ;
390 [label="X[18] <= 0.5\ngini = 0.422\nsamples = 33\nvalue = [10, 23]"] ;
12 -> 390 ;
391 [label="X[456] <= 0.5\ngini = 0.159\nsamples = 23\nvalue = [2, 21]"] ;
390 -> 391 ;
392 [label="X[222] <= 1.5\ngini = 0.087\nsamples = 22\nvalue = [1, 21]"] ;
391 -> 392 ;
393 [label="gini = 0.0\nsamples = 19\nvalue = [0, 19]"] ;
392 -> 393 ;
394 [label="gini = 0.444\nsamples = 3\nvalue = [1, 2]"] ;
392 -> 394 ;
395 [label="gini = 0.0\nsamples = 1\nvalue = [1, 0]"] ;
391 -> 395 ;
396 [label="X[429] <= 0.5\ngini = 0.32\nsamples = 10\nvalue = [8, 2]"] ;
390 -> 396 ;
397 [label="gini = 0.0\nsamples = 8\nvalue = [8, 0]"] ;
396 -> 397 ;
398 [label="gini = 0.0\nsamples = 2\nvalue = [0, 2]"] ;
396 -> 398 ;
399 [label="X[44] <= 1.5\ngini = 0.444\nsamples = 36\nvalue = [12, 24]"] ;
11 -> 399 ;
400 [label="X[192] <= 1.5\ngini = 0.43\nsamples = 16\nvalue = [11, 5]"] ;
399 -> 400 ;
401 [label="X[184] <= 1.0\ngini = 0.444\nsamples = 6\nvalue = [2, 4]"] ;
400 -> 401 ;
402 [label="gini = 0.0\nsamples = 4\nvalue = [0, 4]"] ;
401 -> 402 ;
403 [label="gini = 0.0\nsamples = 2\nvalue = [2, 0]"] ;
401 -> 403 ;
404 [label="X[321] <= 0.5\ngini = 0.18\nsamples = 10\nvalue = [9, 1]"] ;
400 -> 404 ;
405 [label="gini = 0.0\nsamples = 8\nvalue = [8, 0]"] ;
404 -> 405 ;
406 [label="gini = 0.5\nsamples = 2\nvalue = [1, 1]"] ;
404 -> 406 ;
407 [label="X[429] <= 0.5\ngini = 0.095\nsamples = 20\nvalue = [1, 19]"] ;
399 -> 407 ;
408 [label="gini = 0.0\nsamples = 19\nvalue = [0, 19]"] ;
407 -> 408 ;
409 [label="gini = 0.0\nsamples = 1\nvalue = [1, 0]"] ;
407 -> 409 ;
410 [label="X[316] <= 0.5\ngini = 0.457\nsamples = 34\nvalue = [12, 22]"] ;
10 -> 410 ;
411 [label="X[485] <= 0.5\ngini = 0.415\nsamples = 17\nvalue = [12, 5]"] ;
410 -> 411 ;
412 [label="X[234] <= 0.5\ngini = 0.32\nsamples = 15\nvalue = [12, 3]"] ;
411 -> 412 ;
413 [label="X[413] <= 5.0\ngini = 0.142\nsamples = 13\nvalue = [12, 1]"] ;
412 -> 413 ;
414 [label="gini = 0.0\nsamples = 11\nvalue = [11, 0]"] ;
413 -> 414 ;
415 [label="gini = 0.5\nsamples = 2\nvalue = [1, 1]"] ;
413 -> 415 ;
416 [label="gini = 0.0\nsamples = 2\nvalue = [0, 2]"] ;
412 -> 416 ;
417 [label="gini = 0.0\nsamples = 2\nvalue = [0, 2]"] ;
411 -> 417 ;
418 [label="gini = 0.0\nsamples = 17\nvalue = [0, 17]"] ;
410 -> 418 ;
419 [label="X[55] <= 0.5\ngini = 0.478\nsamples = 33\nvalue = [13, 20]"] ;
9 -> 419 ;
420 [label="X[57] <= 0.5\ngini = 0.278\nsamples = 24\nvalue = [4, 20]"] ;
419 -> 420 ;
421 [label="X[323] <= 0.5\ngini = 0.165\nsamples = 22\nvalue = [2, 20]"] ;
420 -> 421 ;
422 [label="X[244] <= 0.5\ngini = 0.091\nsamples = 21\nvalue = [1, 20]"] ;
421 -> 422 ;
423 [label="gini = 0.0\nsamples = 20\nvalue = [0, 20]"] ;
422 -> 423 ;
424 [label="gini = 0.0\nsamples = 1\nvalue = [1, 0]"] ;
422 -> 424 ;
425 [label="gini = 0.0\nsamples = 1\nvalue = [1, 0]"] ;
421 -> 425 ;
426 [label="gini = 0.0\nsamples = 2\nvalue = [2, 0]"] ;
420 -> 426 ;
427 [label="gini = 0.0\nsamples = 9\nvalue = [9, 0]"] ;
419 -> 427 ;
428 [label="gini = 0.0\nsamples = 5\nvalue = [5, 0]"] ;
8 -> 428 ;
429 [label="gini = 0.0\nsamples = 10\nvalue = [10, 0]"] ;
7 -> 429 ;
430 [label="X[178] <= 0.5\ngini = 0.435\nsamples = 47\nvalue = [32, 15]"] ;
6 -> 430 ;
431 [label="X[285] <= 1.5\ngini = 0.363\nsamples = 42\nvalue = [32, 10]"] ;
430 -> 431 ;
432 [label="X[280] <= 0.5\ngini = 0.32\nsamples = 40\nvalue = [32, 8]"] ;
431 -> 432 ;
433 [label="X[446] <= 0.5\ngini = 0.185\nsamples = 29\nvalue = [26, 3]"] ;
432 -> 433 ;
434 [label="X[149] <= 0.5\ngini = 0.133\nsamples = 28\nvalue = [26, 2]"] ;
433 -> 434 ;
435 [label="X[334] <= 0.5\ngini = 0.071\nsamples = 27\nvalue = [26, 1]"] ;
434 -> 435 ;
436 [label="gini = 0.0\nsamples = 25\nvalue = [25, 0]"] ;
435 -> 436 ;
437 [label="gini = 0.5\nsamples = 2\nvalue = [1, 1]"] ;
435 -> 437 ;
438 [label="gini = 0.0\nsamples = 1\nvalue = [0, 1]"] ;
434 -> 438 ;
439 [label="gini = 0.0\nsamples = 1\nvalue = [0, 1]"] ;
433 -> 439 ;
440 [label="X[110] <= 0.5\ngini = 0.496\nsamples = 11\nvalue = [6, 5]"] ;
432 -> 440 ;
441 [label="X[400] <= 1.0\ngini = 0.494\nsamples = 9\nvalue = [4, 5]"] ;
440 -> 441 ;
442 [label="X[461] <= 0.5\ngini = 0.5\nsamples = 8\nvalue = [4, 4]"] ;
441 -> 442 ;
443 [label="X[106] <= 0.5\ngini = 0.5\nsamples = 6\nvalue = [3, 3]"] ;
442 -> 443 ;
444 [label="X[17] <= 4.0\ngini = 0.5\nsamples = 4\nvalue = [2, 2]"] ;
443 -> 444 ;
445 [label="gini = 0.5\nsamples = 2\nvalue = [1, 1]"] ;
444 -> 445 ;
446 [label="gini = 0.5\nsamples = 2\nvalue = [1, 1]"] ;
444 -> 446 ;
447 [label="gini = 0.5\nsamples = 2\nvalue = [1, 1]"] ;
443 -> 447 ;
448 [label="gini = 0.5\nsamples = 2\nvalue = [1, 1]"] ;
442 -> 448 ;
449 [label="gini = 0.0\nsamples = 1\nvalue = [0, 1]"] ;
441 -> 449 ;
450 [label="gini = 0.0\nsamples = 2\nvalue = [2, 0]"] ;
440 -> 450 ;
451 [label="gini = 0.0\nsamples = 2\nvalue = [0, 2]"] ;
431 -> 451 ;
452 [label="gini = 0.0\nsamples = 5\nvalue = [0, 5]"] ;
430 -> 452 ;
453 [label="X[126] <= 0.5\ngini = 0.147\nsamples = 50\nvalue = [46, 4]"] ;
5 -> 453 ;
454 [label="X[139] <= 0.5\ngini = 0.042\nsamples = 47\nvalue = [46, 1]"] ;
453 -> 454 ;
455 [label="gini = 0.0\nsamples = 46\nvalue = [46, 0]"] ;
454 -> 455 ;
456 [label="gini = 0.0\nsamples = 1\nvalue = [0, 1]"] ;
454 -> 456 ;
457 [label="gini = 0.0\nsamples = 3\nvalue = [0, 3]"] ;
453 -> 457 ;
458 [label="X[112] <= 0.5\ngini = 0.498\nsamples = 223\nvalue = [104, 119]"] ;
4 -> 458 ;
459 [label="X[31] <= 1.5\ngini = 0.442\nsamples = 167\nvalue = [55, 112]"] ;
458 -> 459 ;
460 [label="X[22] <= 1.5\ngini = 0.393\nsamples = 149\nvalue = [40, 109]"] ;
459 -> 460 ;
461 [label="X[129] <= 0.5\ngini = 0.348\nsamples = 138\nvalue = [31, 107]"] ;
460 -> 461 ;
462 [label="X[46] <= 0.5\ngini = 0.316\nsamples = 132\nvalue = [26, 106]"] ;
461 -> 462 ;
463 [label="X[81] <= 2.5\ngini = 0.199\nsamples = 98\nvalue = [11, 87]"] ;
462 -> 463 ;
464 [label="X[189] <= 0.5\ngini = 0.126\nsamples = 89\nvalue = [6, 83]"] ;
463 -> 464 ;
465 [label="X[43] <= 3.5\ngini = 0.107\nsamples = 88\nvalue = [5, 83]"] ;
464 -> 465 ;
466 [label="X[80] <= 0.5\ngini = 0.088\nsamples = 87\nvalue = [4, 83]"] ;
465 -> 466 ;
467 [label="X[29] <= 1.5\ngini = 0.025\nsamples = 79\nvalue = [1, 78]"] ;
466 -> 467 ;
468 [label="gini = 0.0\nsamples = 76\nvalue = [0, 76]"] ;
467 -> 468 ;
469 [label="X[188] <= 1.0\ngini = 0.444\nsamples = 3\nvalue = [1, 2]"] ;
467 -> 469 ;
470 [label="gini = 0.0\nsamples = 2\nvalue = [0, 2]"] ;
469 -> 470 ;
471 [label="gini = 0.0\nsamples = 1\nvalue = [1, 0]"] ;
469 -> 471 ;
472 [label="X[11] <= 3.0\ngini = 0.469\nsamples = 8\nvalue = [3, 5]"] ;
466 -> 472 ;
473 [label="X[264] <= 0.5\ngini = 0.375\nsamples = 4\nvalue = [3, 1]"] ;
472 -> 473 ;
474 [label="gini = 0.0\nsamples = 3\nvalue = [3, 0]"] ;
473 -> 474 ;
475 [label="gini = 0.0\nsamples = 1\nvalue = [0, 1]"] ;
473 -> 475 ;
476 [label="gini = 0.0\nsamples = 4\nvalue = [0, 4]"] ;
472 -> 476 ;
477 [label="gini = 0.0\nsamples = 1\nvalue = [1, 0]"] ;
465 -> 477 ;
478 [label="gini = 0.0\nsamples = 1\nvalue = [1, 0]"] ;
464 -> 478 ;
479 [label="X[401] <= 0.5\ngini = 0.494\nsamples = 9\nvalue = [5, 4]"] ;
463 -> 479 ;
480 [label="X[442] <= 0.5\ngini = 0.408\nsamples = 7\nvalue = [5, 2]"] ;
479 -> 480 ;
481 [label="gini = 0.0\nsamples = 4\nvalue = [4, 0]"] ;
480 -> 481 ;
482 [label="X[35] <= 2.0\ngini = 0.444\nsamples = 3\nvalue = [1, 2]"] ;
480 -> 482 ;
483 [label="gini = 0.0\nsamples = 1\nvalue = [0, 1]"] ;
482 -> 483 ;
484 [label="gini = 0.5\nsamples = 2\nvalue = [1, 1]"] ;
482 -> 484 ;
485 [label="gini = 0.0\nsamples = 2\nvalue = [0, 2]"] ;
479 -> 485 ;
486 [label="X[222] <= 0.5\ngini = 0.493\nsamples = 34\nvalue = [15, 19]"] ;
462 -> 486 ;
487 [label="X[192] <= 0.5\ngini = 0.455\nsamples = 20\nvalue = [13, 7]"] ;
486 -> 487 ;
488 [label="X[7] <= 0.5\ngini = 0.36\nsamples = 17\nvalue = [13, 4]"] ;
487 -> 488 ;
489 [label="X[254] <= 0.5\ngini = 0.231\nsamples = 15\nvalue = [13, 2]"] ;
488 -> 489 ;
490 [label="gini = 0.0\nsamples = 12\nvalue = [12, 0]"] ;
489 -> 490 ;
491 [label="X[472] <= 0.5\ngini = 0.444\nsamples = 3\nvalue = [1, 2]"] ;
489 -> 491 ;
492 [label="gini = 0.5\nsamples = 2\nvalue = [1, 1]"] ;
491 -> 492 ;
493 [label="gini = 0.0\nsamples = 1\nvalue = [0, 1]"] ;
491 -> 493 ;
494 [label="gini = 0.0\nsamples = 2\nvalue = [0, 2]"] ;
488 -> 494 ;
495 [label="gini = 0.0\nsamples = 3\nvalue = [0, 3]"] ;
487 -> 495 ;
496 [label="X[85] <= 0.5\ngini = 0.245\nsamples = 14\nvalue = [2, 12]"] ;
486 -> 496 ;
497 [label="gini = 0.0\nsamples = 8\nvalue = [0, 8]"] ;
496 -> 497 ;
498 [label="X[7] <= 1.0\ngini = 0.444\nsamples = 6\nvalue = [2, 4]"] ;
496 -> 498 ;
499 [label="gini = 0.375\nsamples = 4\nvalue = [1, 3]"] ;
498 -> 499 ;
500 [label="gini = 0.5\nsamples = 2\nvalue = [1, 1]"] ;
498 -> 500 ;
501 [label="X[450] <= 0.5\ngini = 0.278\nsamples = 6\nvalue = [5, 1]"] ;
461 -> 501 ;
502 [label="gini = 0.0\nsamples = 5\nvalue = [5, 0]"] ;
501 -> 502 ;
503 [label="gini = 0.0\nsamples = 1\nvalue = [0, 1]"] ;
501 -> 503 ;
504 [label="X[114] <= 0.5\ngini = 0.298\nsamples = 11\nvalue = [9, 2]"] ;
460 -> 504 ;
505 [label="gini = 0.0\nsamples = 9\nvalue = [9, 0]"] ;
504 -> 505 ;
506 [label="gini = 0.0\nsamples = 2\nvalue = [0, 2]"] ;
504 -> 506 ;
507 [label="X[302] <= 0.5\ngini = 0.278\nsamples = 18\nvalue = [15, 3]"] ;
459 -> 507 ;
508 [label="X[329] <= 0.5\ngini = 0.117\nsamples = 16\nvalue = [15, 1]"] ;
507 -> 508 ;
509 [label="gini = 0.0\nsamples = 15\nvalue = [15, 0]"] ;
508 -> 509 ;
510 [label="gini = 0.0\nsamples = 1\nvalue = [0, 1]"] ;
508 -> 510 ;
511 [label="gini = 0.0\nsamples = 2\nvalue = [0, 2]"] ;
507 -> 511 ;
512 [label="X[18] <= 0.5\ngini = 0.219\nsamples = 56\nvalue = [49, 7]"] ;
458 -> 512 ;
513 [label="X[252] <= 0.5\ngini = 0.375\nsamples = 8\nvalue = [2, 6]"] ;
512 -> 513 ;
514 [label="gini = 0.0\nsamples = 2\nvalue = [2, 0]"] ;
513 -> 514 ;
515 [label="gini = 0.0\nsamples = 6\nvalue = [0, 6]"] ;
513 -> 515 ;
516 [label="X[372] <= 1.0\ngini = 0.041\nsamples = 48\nvalue = [47, 1]"] ;
512 -> 516 ;
517 [label="gini = 0.0\nsamples = 47\nvalue = [47, 0]"] ;
516 -> 517 ;
518 [label="gini = 0.0\nsamples = 1\nvalue = [0, 1]"] ;
516 -> 518 ;
519 [label="X[272] <= 0.5\ngini = 0.263\nsamples = 109\nvalue = [92, 17]"] ;
3 -> 519 ;
520 [label="X[100] <= 0.5\ngini = 0.104\nsamples = 91\nvalue = [86, 5]"] ;
519 -> 520 ;
521 [label="X[312] <= 0.5\ngini = 0.023\nsamples = 86\nvalue = [85, 1]"] ;
520 -> 521 ;
522 [label="gini = 0.0\nsamples = 82\nvalue = [82, 0]"] ;
521 -> 522 ;
523 [label="X[30] <= 0.5\ngini = 0.375\nsamples = 4\nvalue = [3, 1]"] ;
521 -> 523 ;
524 [label="gini = 0.0\nsamples = 1\nvalue = [0, 1]"] ;
523 -> 524 ;
525 [label="gini = 0.0\nsamples = 3\nvalue = [3, 0]"] ;
523 -> 525 ;
526 [label="X[72] <= 0.5\ngini = 0.32\nsamples = 5\nvalue = [1, 4]"] ;
520 -> 526 ;
527 [label="gini = 0.0\nsamples = 4\nvalue = [0, 4]"] ;
526 -> 527 ;
528 [label="gini = 0.0\nsamples = 1\nvalue = [1, 0]"] ;
526 -> 528 ;
529 [label="X[115] <= 1.5\ngini = 0.444\nsamples = 18\nvalue = [6, 12]"] ;
519 -> 529 ;
530 [label="X[330] <= 0.5\ngini = 0.165\nsamples = 11\nvalue = [1, 10]"] ;
529 -> 530 ;
531 [label="gini = 0.0\nsamples = 7\nvalue = [0, 7]"] ;
530 -> 531 ;
532 [label="gini = 0.375\nsamples = 4\nvalue = [1, 3]"] ;
530 -> 532 ;
533 [label="X[18] <= 1.5\ngini = 0.408\nsamples = 7\nvalue = [5, 2]"] ;
529 -> 533 ;
534 [label="gini = 0.0\nsamples = 4\nvalue = [4, 0]"] ;
533 -> 534 ;
535 [label="X[16] <= 0.5\ngini = 0.444\nsamples = 3\nvalue = [1, 2]"] ;
533 -> 535 ;
536 [label="gini = 0.5\nsamples = 2\nvalue = [1, 1]"] ;
535 -> 536 ;
537 [label="gini = 0.0\nsamples = 1\nvalue = [0, 1]"] ;
535 -> 537 ;
538 [label="X[272] <= 0.5\ngini = 0.157\nsamples = 128\nvalue = [117, 11]"] ;
2 -> 538 ;
539 [label="X[18] <= 0.5\ngini = 0.093\nsamples = 123\nvalue = [117, 6]"] ;
538 -> 539 ;
540 [label="X[26] <= 0.5\ngini = 0.457\nsamples = 17\nvalue = [11, 6]"] ;
539 -> 540 ;
541 [label="X[21] <= 0.5\ngini = 0.48\nsamples = 10\nvalue = [4, 6]"] ;
540 -> 541 ;
542 [label="gini = 0.0\nsamples = 3\nvalue = [3, 0]"] ;
541 -> 542 ;
543 [label="X[106] <= 0.5\ngini = 0.245\nsamples = 7\nvalue = [1, 6]"] ;
541 -> 543 ;
544 [label="gini = 0.0\nsamples = 6\nvalue = [0, 6]"] ;
543 -> 544 ;
545 [label="gini = 0.0\nsamples = 1\nvalue = [1, 0]"] ;
543 -> 545 ;
546 [label="gini = 0.0\nsamples = 7\nvalue = [7, 0]"] ;
540 -> 546 ;
547 [label="gini = 0.0\nsamples = 106\nvalue = [106, 0]"] ;
539 -> 547 ;
548 [label="gini = 0.0\nsamples = 5\nvalue = [0, 5]"] ;
538 -> 548 ;
549 [label="X[97] <= 0.5\ngini = 0.376\nsamples = 395\nvalue = [296, 99]"] ;
1 -> 549 ;
550 [label="X[98] <= 0.5\ngini = 0.278\nsamples = 294\nvalue = [245, 49]"] ;
549 -> 550 ;
551 [label="X[224] <= 1.5\ngini = 0.232\nsamples = 276\nvalue = [239, 37]"] ;
550 -> 551 ;
552 [label="X[464] <= 3.0\ngini = 0.208\nsamples = 271\nvalue = [239, 32]"] ;
551 -> 552 ;
553 [label="X[420] <= 0.5\ngini = 0.178\nsamples = 264\nvalue = [238, 26]"] ;
552 -> 553 ;
554 [label="X[390] <= 0.5\ngini = 0.139\nsamples = 253\nvalue = [234, 19]"] ;
553 -> 554 ;
555 [label="X[308] <= 0.5\ngini = 0.108\nsamples = 245\nvalue = [231, 14]"] ;
554 -> 555 ;
556 [label="X[163] <= 1.5\ngini = 0.074\nsamples = 234\nvalue = [225, 9]"] ;
555 -> 556 ;
557 [label="X[370] <= 1.5\ngini = 0.051\nsamples = 228\nvalue = [222, 6]"] ;
556 -> 557 ;
558 [label="X[5] <= 3.0\ngini = 0.043\nsamples = 227\nvalue = [222, 5]"] ;
557 -> 558 ;
559 [label="X[105] <= 1.5\ngini = 0.035\nsamples = 226\nvalue = [222, 4]"] ;
558 -> 559 ;
560 [label="X[202] <= 2.0\ngini = 0.026\nsamples = 225\nvalue = [222, 3]"] ;
559 -> 560 ;
561 [label="X[277] <= 2.5\ngini = 0.018\nsamples = 224\nvalue = [222, 2]"] ;
560 -> 561 ;
562 [label="X[295] <= 1.5\ngini = 0.009\nsamples = 222\nvalue = [221, 1]"] ;
561 -> 562 ;
563 [label="gini = 0.0\nsamples = 220\nvalue = [220, 0]"] ;
562 -> 563 ;
564 [label="X[413] <= 0.5\ngini = 0.5\nsamples = 2\nvalue = [1, 1]"] ;
562 -> 564 ;
565 [label="gini = 0.0\nsamples = 1\nvalue = [1, 0]"] ;
564 -> 565 ;
566 [label="gini = 0.0\nsamples = 1\nvalue = [0, 1]"] ;
564 -> 566 ;
567 [label="X[489] <= 0.5\ngini = 0.5\nsamples = 2\nvalue = [1, 1]"] ;
561 -> 567 ;
568 [label="gini = 0.0\nsamples = 1\nvalue = [1, 0]"] ;
567 -> 568 ;
569 [label="gini = 0.0\nsamples = 1\nvalue = [0, 1]"] ;
567 -> 569 ;
570 [label="gini = 0.0\nsamples = 1\nvalue = [0, 1]"] ;
560 -> 570 ;
571 [label="gini = 0.0\nsamples = 1\nvalue = [0, 1]"] ;
559 -> 571 ;
572 [label="gini = 0.0\nsamples = 1\nvalue = [0, 1]"] ;
558 -> 572 ;
573 [label="gini = 0.0\nsamples = 1\nvalue = [0, 1]"] ;
557 -> 573 ;
574 [label="X[172] <= 0.5\ngini = 0.5\nsamples = 6\nvalue = [3, 3]"] ;
556 -> 574 ;
575 [label="gini = 0.0\nsamples = 3\nvalue = [0, 3]"] ;
574 -> 575 ;
576 [label="gini = 0.0\nsamples = 3\nvalue = [3, 0]"] ;
574 -> 576 ;
577 [label="X[58] <= 1.5\ngini = 0.496\nsamples = 11\nvalue = [6, 5]"] ;
555 -> 577 ;
578 [label="X[269] <= 0.5\ngini = 0.278\nsamples = 6\nvalue = [1, 5]"] ;
577 -> 578 ;
579 [label="gini = 0.0\nsamples = 5\nvalue = [0, 5]"] ;
578 -> 579 ;
580 [label="gini = 0.0\nsamples = 1\nvalue = [1, 0]"] ;
578 -> 580 ;
581 [label="gini = 0.0\nsamples = 5\nvalue = [5, 0]"] ;
577 -> 581 ;
582 [label="X[373] <= 0.5\ngini = 0.469\nsamples = 8\nvalue = [3, 5]"] ;
554 -> 582 ;
583 [label="X[437] <= 0.5\ngini = 0.408\nsamples = 7\nvalue = [2, 5]"] ;
582 -> 583 ;
584 [label="gini = 0.444\nsamples = 3\nvalue = [1, 2]"] ;
583 -> 584 ;
585 [label="gini = 0.375\nsamples = 4\nvalue = [1, 3]"] ;
583 -> 585 ;
586 [label="gini = 0.0\nsamples = 1\nvalue = [1, 0]"] ;
582 -> 586 ;
587 [label="X[244] <= 0.5\ngini = 0.463\nsamples = 11\nvalue = [4, 7]"] ;
553 -> 587 ;
588 [label="gini = 0.0\nsamples = 5\nvalue = [0, 5]"] ;
587 -> 588 ;
589 [label="X[31] <= 1.5\ngini = 0.444\nsamples = 6\nvalue = [4, 2]"] ;
587 -> 589 ;
590 [label="X[30] <= 0.5\ngini = 0.5\nsamples = 4\nvalue = [2, 2]"] ;
589 -> 590 ;
591 [label="gini = 0.5\nsamples = 2\nvalue = [1, 1]"] ;
590 -> 591 ;
592 [label="gini = 0.5\nsamples = 2\nvalue = [1, 1]"] ;
590 -> 592 ;
593 [label="gini = 0.0\nsamples = 2\nvalue = [2, 0]"] ;
589 -> 593 ;
594 [label="X[0] <= 0.5\ngini = 0.245\nsamples = 7\nvalue = [1, 6]"] ;
552 -> 594 ;
595 [label="gini = 0.0\nsamples = 5\nvalue = [0, 5]"] ;
594 -> 595 ;
596 [label="gini = 0.5\nsamples = 2\nvalue = [1, 1]"] ;
594 -> 596 ;
597 [label="gini = 0.0\nsamples = 5\nvalue = [0, 5]"] ;
551 -> 597 ;
598 [label="X[22] <= 0.5\ngini = 0.444\nsamples = 18\nvalue = [6, 12]"] ;
550 -> 598 ;
599 [label="X[423] <= 0.5\ngini = 0.142\nsamples = 13\nvalue = [1, 12]"] ;
598 -> 599 ;
600 [label="gini = 0.0\nsamples = 9\nvalue = [0, 9]"] ;
599 -> 600 ;
601 [label="gini = 0.375\nsamples = 4\nvalue = [1, 3]"] ;
599 -> 601 ;
602 [label="gini = 0.0\nsamples = 5\nvalue = [5, 0]"] ;
598 -> 602 ;
603 [label="X[18] <= 0.5\ngini = 0.5\nsamples = 101\nvalue = [51, 50]"] ;
549 -> 603 ;
604 [label="X[77] <= 3.5\ngini = 0.198\nsamples = 27\nvalue = [3, 24]"] ;
603 -> 604 ;
605 [label="gini = 0.0\nsamples = 23\nvalue = [0, 23]"] ;
604 -> 605 ;
606 [label="X[478] <= 1.0\ngini = 0.375\nsamples = 4\nvalue = [3, 1]"] ;
604 -> 606 ;
607 [label="gini = 0.0\nsamples = 3\nvalue = [3, 0]"] ;
606 -> 607 ;
608 [label="gini = 0.0\nsamples = 1\nvalue = [0, 1]"] ;
606 -> 608 ;
609 [label="X[241] <= 3.5\ngini = 0.456\nsamples = 74\nvalue = [48, 26]"] ;
603 -> 609 ;
610 [label="X[185] <= 1.5\ngini = 0.35\nsamples = 53\nvalue = [41, 12]"] ;
609 -> 610 ;
611 [label="X[85] <= 2.0\ngini = 0.169\nsamples = 43\nvalue = [39, 4]"] ;
610 -> 611 ;
612 [label="X[285] <= 2.5\ngini = 0.093\nsamples = 41\nvalue = [39, 2]"] ;
611 -> 612 ;
613 [label="X[8] <= 5.0\ngini = 0.049\nsamples = 40\nvalue = [39, 1]"] ;
612 -> 613 ;
614 [label="gini = 0.0\nsamples = 39\nvalue = [39, 0]"] ;
613 -> 614 ;
615 [label="gini = 0.0\nsamples = 1\nvalue = [0, 1]"] ;
613 -> 615 ;
616 [label="gini = 0.0\nsamples = 1\nvalue = [0, 1]"] ;
612 -> 616 ;
617 [label="gini = 0.0\nsamples = 2\nvalue = [0, 2]"] ;
611 -> 617 ;
618 [label="X[276] <= 0.5\ngini = 0.32\nsamples = 10\nvalue = [2, 8]"] ;
610 -> 618 ;
619 [label="gini = 0.0\nsamples = 5\nvalue = [0, 5]"] ;
618 -> 619 ;
620 [label="X[192] <= 2.5\ngini = 0.48\nsamples = 5\nvalue = [2, 3]"] ;
618 -> 620 ;
621 [label="X[114] <= 0.5\ngini = 0.5\nsamples = 4\nvalue = [2, 2]"] ;
620 -> 621 ;
622 [label="gini = 0.5\nsamples = 2\nvalue = [1, 1]"] ;
621 -> 622 ;
623 [label="gini = 0.5\nsamples = 2\nvalue = [1, 1]"] ;
621 -> 623 ;
624 [label="gini = 0.0\nsamples = 1\nvalue = [0, 1]"] ;
620 -> 624 ;
625 [label="X[402] <= 0.5\ngini = 0.444\nsamples = 21\nvalue = [7, 14]"] ;
609 -> 625 ;
626 [label="X[241] <= 8.5\ngini = 0.42\nsamples = 20\nvalue = [6, 14]"] ;
625 -> 626 ;
627 [label="X[176] <= 0.5\ngini = 0.48\nsamples = 10\nvalue = [4, 6]"] ;
626 -> 627 ;
628 [label="X[441] <= 1.5\ngini = 0.5\nsamples = 6\nvalue = [3, 3]"] ;
627 -> 628 ;
629 [label="X[150] <= 0.5\ngini = 0.5\nsamples = 4\nvalue = [2, 2]"] ;
628 -> 629 ;
630 [label="gini = 0.5\nsamples = 2\nvalue = [1, 1]"] ;
629 -> 630 ;
631 [label="gini = 0.5\nsamples = 2\nvalue = [1, 1]"] ;
629 -> 631 ;
632 [label="gini = 0.5\nsamples = 2\nvalue = [1, 1]"] ;
628 -> 632 ;
633 [label="gini = 0.375\nsamples = 4\nvalue = [1, 3]"] ;
627 -> 633 ;
634 [label="X[241] <= 14.0\ngini = 0.32\nsamples = 10\nvalue = [2, 8]"] ;
626 -> 634 ;
635 [label="X[226] <= 0.5\ngini = 0.375\nsamples = 8\nvalue = [2, 6]"] ;
634 -> 635 ;
636 [label="gini = 0.375\nsamples = 4\nvalue = [1, 3]"] ;
635 -> 636 ;
637 [label="gini = 0.375\nsamples = 4\nvalue = [1, 3]"] ;
635 -> 637 ;
638 [label="gini = 0.0\nsamples = 2\nvalue = [0, 2]"] ;
634 -> 638 ;
639 [label="gini = 0.0\nsamples = 1\nvalue = [1, 0]"] ;
625 -> 639 ;
640 [label="X[222] <= 0.5\ngini = 0.129\nsamples = 2176\nvalue = [2025, 151]"] ;
0 -> 640 [labeldistance=2.5, labelangle=-45, headlabel="False"] ;
641 [label="X[252] <= 0.5\ngini = 0.07\nsamples = 2092\nvalue = [2016, 76]"] ;
640 -> 641 ;
642 [label="X[272] <= 0.5\ngini = 0.036\nsamples = 2043\nvalue = [2006, 37]"] ;
641 -> 642 ;
643 [label="X[224] <= 3.0\ngini = 0.028\nsamples = 2029\nvalue = [2000, 29]"] ;
642 -> 643 ;
644 [label="X[492] <= 0.5\ngini = 0.023\nsamples = 2023\nvalue = [1999, 24]"] ;
643 -> 644 ;
645 [label="X[114] <= 4.5\ngini = 0.02\nsamples = 2018\nvalue = [1998, 20]"] ;
644 -> 645 ;
646 [label="X[185] <= 1.5\ngini = 0.017\nsamples = 2015\nvalue = [1998, 17]"] ;
645 -> 646 ;
647 [label="X[331] <= 0.5\ngini = 0.013\nsamples = 2008\nvalue = [1995, 13]"] ;
646 -> 647 ;
648 [label="X[467] <= 4.5\ngini = 0.007\nsamples = 1994\nvalue = [1987, 7]"] ;
647 -> 648 ;
649 [label="X[234] <= 2.5\ngini = 0.006\nsamples = 1993\nvalue = [1987, 6]"] ;
648 -> 649 ;
650 [label="X[322] <= 1.5\ngini = 0.005\nsamples = 1991\nvalue = [1986, 5]"] ;
649 -> 650 ;
651 [label="X[499] <= 5.5\ngini = 0.004\nsamples = 1989\nvalue = [1985, 4]"] ;
650 -> 651 ;
652 [label="X[41] <= 2.5\ngini = 0.003\nsamples = 1987\nvalue = [1984, 3]"] ;
651 -> 652 ;
653 [label="X[262] <= 3.5\ngini = 0.002\nsamples = 1985\nvalue = [1983, 2]"] ;
652 -> 653 ;
654 [label="X[420] <= 1.5\ngini = 0.001\nsamples = 1983\nvalue = [1982, 1]"] ;
653 -> 654 ;
655 [label="gini = 0.0\nsamples = 1981\nvalue = [1981, 0]"] ;
654 -> 655 ;
656 [label="X[147] <= 1.5\ngini = 0.5\nsamples = 2\nvalue = [1, 1]"] ;
654 -> 656 ;
657 [label="gini = 0.0\nsamples = 1\nvalue = [0, 1]"] ;
656 -> 657 ;
658 [label="gini = 0.0\nsamples = 1\nvalue = [1, 0]"] ;
656 -> 658 ;
659 [label="X[36] <= 0.5\ngini = 0.5\nsamples = 2\nvalue = [1, 1]"] ;
653 -> 659 ;
660 [label="gini = 0.0\nsamples = 1\nvalue = [0, 1]"] ;
659 -> 660 ;
661 [label="gini = 0.0\nsamples = 1\nvalue = [1, 0]"] ;
659 -> 661 ;
662 [label="gini = 0.5\nsamples = 2\nvalue = [1, 1]"] ;
652 -> 662 ;
663 [label="gini = 0.5\nsamples = 2\nvalue = [1, 1]"] ;
651 -> 663 ;
664 [label="X[118] <= 0.5\ngini = 0.5\nsamples = 2\nvalue = [1, 1]"] ;
650 -> 664 ;
665 [label="gini = 0.0\nsamples = 1\nvalue = [0, 1]"] ;
664 -> 665 ;
666 [label="gini = 0.0\nsamples = 1\nvalue = [1, 0]"] ;
664 -> 666 ;
667 [label="X[82] <= 0.5\ngini = 0.5\nsamples = 2\nvalue = [1, 1]"] ;
649 -> 667 ;
668 [label="gini = 0.0\nsamples = 1\nvalue = [0, 1]"] ;
667 -> 668 ;
669 [label="gini = 0.0\nsamples = 1\nvalue = [1, 0]"] ;
667 -> 669 ;
670 [label="gini = 0.0\nsamples = 1\nvalue = [0, 1]"] ;
648 -> 670 ;
671 [label="X[21] <= 6.5\ngini = 0.49\nsamples = 14\nvalue = [8, 6]"] ;
647 -> 671 ;
672 [label="X[232] <= 0.5\ngini = 0.444\nsamples = 9\nvalue = [3, 6]"] ;
671 -> 672 ;
673 [label="X[285] <= 0.5\ngini = 0.245\nsamples = 7\nvalue = [1, 6]"] ;
672 -> 673 ;
674 [label="gini = 0.0\nsamples = 5\nvalue = [0, 5]"] ;
673 -> 674 ;
675 [label="gini = 0.5\nsamples = 2\nvalue = [1, 1]"] ;
673 -> 675 ;
676 [label="gini = 0.0\nsamples = 2\nvalue = [2, 0]"] ;
672 -> 676 ;
677 [label="gini = 0.0\nsamples = 5\nvalue = [5, 0]"] ;
671 -> 677 ;
678 [label="X[17] <= 4.0\ngini = 0.49\nsamples = 7\nvalue = [3, 4]"] ;
646 -> 678 ;
679 [label="gini = 0.0\nsamples = 4\nvalue = [0, 4]"] ;
678 -> 679 ;
680 [label="gini = 0.0\nsamples = 3\nvalue = [3, 0]"] ;
678 -> 680 ;
681 [label="gini = 0.0\nsamples = 3\nvalue = [0, 3]"] ;
645 -> 681 ;
682 [label="X[131] <= 0.5\ngini = 0.32\nsamples = 5\nvalue = [1, 4]"] ;
644 -> 682 ;
683 [label="gini = 0.0\nsamples = 4\nvalue = [0, 4]"] ;
682 -> 683 ;
684 [label="gini = 0.0\nsamples = 1\nvalue = [1, 0]"] ;
682 -> 684 ;
685 [label="X[448] <= 1.0\ngini = 0.278\nsamples = 6\nvalue = [1, 5]"] ;
643 -> 685 ;
686 [label="gini = 0.0\nsamples = 5\nvalue = [0, 5]"] ;
685 -> 686 ;
687 [label="gini = 0.0\nsamples = 1\nvalue = [1, 0]"] ;
685 -> 687 ;
688 [label="X[22] <= 1.5\ngini = 0.49\nsamples = 14\nvalue = [6, 8]"] ;
642 -> 688 ;
689 [label="X[278] <= 0.5\ngini = 0.32\nsamples = 10\nvalue = [2, 8]"] ;
688 -> 689 ;
690 [label="gini = 0.0\nsamples = 7\nvalue = [0, 7]"] ;
689 -> 690 ;
691 [label="X[17] <= 7.0\ngini = 0.444\nsamples = 3\nvalue = [2, 1]"] ;
689 -> 691 ;
692 [label="gini = 0.0\nsamples = 1\nvalue = [1, 0]"] ;
691 -> 692 ;
693 [label="gini = 0.5\nsamples = 2\nvalue = [1, 1]"] ;
691 -> 693 ;
694 [label="gini = 0.0\nsamples = 4\nvalue = [4, 0]"] ;
688 -> 694 ;
695 [label="X[31] <= 0.5\ngini = 0.325\nsamples = 49\nvalue = [10, 39]"] ;
641 -> 695 ;
696 [label="X[114] <= 0.5\ngini = 0.139\nsamples = 40\nvalue = [3, 37]"] ;
695 -> 696 ;
697 [label="X[106] <= 0.5\ngini = 0.051\nsamples = 38\nvalue = [1, 37]"] ;
696 -> 697 ;
698 [label="gini = 0.0\nsamples = 35\nvalue = [0, 35]"] ;
697 -> 698 ;
699 [label="gini = 0.444\nsamples = 3\nvalue = [1, 2]"] ;
697 -> 699 ;
700 [label="gini = 0.0\nsamples = 2\nvalue = [2, 0]"] ;
696 -> 700 ;
701 [label="X[220] <= 0.5\ngini = 0.346\nsamples = 9\nvalue = [7, 2]"] ;
695 -> 701 ;
702 [label="gini = 0.0\nsamples = 6\nvalue = [6, 0]"] ;
701 -> 702 ;
703 [label="X[277] <= 1.0\ngini = 0.444\nsamples = 3\nvalue = [1, 2]"] ;
701 -> 703 ;
704 [label="gini = 0.5\nsamples = 2\nvalue = [1, 1]"] ;
703 -> 704 ;
705 [label="gini = 0.0\nsamples = 1\nvalue = [0, 1]"] ;
703 -> 705 ;
706 [label="X[26] <= 0.5\ngini = 0.191\nsamples = 84\nvalue = [9, 75]"] ;
640 -> 706 ;
707 [label="X[121] <= 0.5\ngini = 0.117\nsamples = 80\nvalue = [5, 75]"] ;
706 -> 707 ;
708 [label="X[113] <= 1.5\ngini = 0.027\nsamples = 74\nvalue = [1, 73]"] ;
707 -> 708 ;
709 [label="gini = 0.0\nsamples = 73\nvalue = [0, 73]"] ;
708 -> 709 ;
710 [label="gini = 0.0\nsamples = 1\nvalue = [1, 0]"] ;
708 -> 710 ;
711 [label="X[100] <= 2.0\ngini = 0.444\nsamples = 6\nvalue = [4, 2]"] ;
707 -> 711 ;
712 [label="X[72] <= 0.5\ngini = 0.32\nsamples = 5\nvalue = [4, 1]"] ;
711 -> 712 ;
713 [label="gini = 0.0\nsamples = 3\nvalue = [3, 0]"] ;
712 -> 713 ;
714 [label="gini = 0.5\nsamples = 2\nvalue = [1, 1]"] ;
712 -> 714 ;
715 [label="gini = 0.0\nsamples = 1\nvalue = [0, 1]"] ;
711 -> 715 ;
716 [label="gini = 0.0\nsamples = 4\nvalue = [4, 0]"] ;
706 -> 716 ;
}